Weight
[[[-0.7485717365083158, 1.5718850765492531, -0.16325838750831778, 0.9888247576417208, 2.2439144287583233, ..., 0.9202723784019897, 0.6909083936654434, -0.7277301900479823, 1.2753436829324725, 0.6122776635549284],
 [-0.16248202278385585, 0.1298986712667536, 1.0003581412432219, 0.5574542997292564, 0.1906326662677082, ..., -0.6497849541290495, 0.8385324650632091, -0.17030315804032387, 0.710879111902834, 0.8049870065098178],
 [-0.26011582007457135, -0.37082591699480644, 0.65658182432549, 0.2955890529472113, 0.5002254369216697, ..., 2.3433502574097775, 1.2302851102017516, -0.3979057589411493, -0.2320507534500486, -1.2509869905989985],
 [0.5296260323847003, 2.336590461012996, -0.2713850201472458, -0.645262359403478, -0.6112172876758257, ..., 0.856878182783206, 1.4203542590139462, -1.7217979826144059, -0.45185916341588717, -1.0508395369746153],
 [-0.031280651978313805, -1.708547087003308, -0.271657822629732, 0.970092743059538, 0.6977870705027555, ..., 2.6789434642417835, 1.6802817094545217, -0.9260137909784536, 1.9727734252759606, 0.5474749468284736],
 ...,
 [0.07868274799857221, 0.7235896493164014, 0.030637648326415655, -1.8290856378392335, -0.4836026955118401, ..., -1.026944565475505, 1.8863138786752618, 0.020913876115932543, 0.5833497293548605, -0.39241164465794537],
 [-0.5014526537834164, 0.810256936328483, -0.11361316051568204, -1.4368187551303193, 0.05254748591001918, ..., -1.5650524306390428, -0.3371274649688074, 0.6851157806610271, 0.30064275452913813, -0.09125765375355431],
 [-1.781194873245127, 0.6147938342116631, 0.19930099205378607, 0.556584563304818, -0.1123179047071702, ..., 0.902499661539142, 0.49770746788700143, 0.7413575570736289, 0.5827344440106575, 1.0892918010844608],
 [0.9536374864263962, -1.1382366307829506, -0.9363038913103358, -0.5767215147315943, 0.9896857692909573, ..., -0.36614138837515886, 2.041259143550804, -1.5698209898000859, -2.0122080334641517, -1.4568257177110278],
 [-0.5844951558802366, -0.5146481923462212, -1.0230999722518983, 0.5491503326862869, 0.28435629373765364, ..., -0.9669581022971134, 0.5282311621125158, -0.10516955057580661, 0.23135612341788162, 1.1041004516464448]], shape=[100, 784], strides=[1, 100], layout=Ff (0xa), const ndim=2, [[-0.01711161621973088, 0.48834126535860256, -0.2133744662535915, -1.8845320933881065, -0.10799908160796992, ..., -1.4599217284809582, -1.3598794500126905, -0.9040818645095317, -0.4829618790949055, 0.1538401891564033],
 [0.6231169488530911, 0.4453177194475258, -0.3774959561103553, -0.5530326509798076, -1.3101397317810977, ..., -0.35684221581239906, 1.417910535770033, -1.217450864045555, -0.9897306672951983, -0.168801859585646],
 [-0.5609368506972543, 0.5318901522420016, 0.4683967979287974, -0.939677965458689, 0.965568685590028, ..., 0.6117565573486359, 1.2541038121214354, -0.6933150432086175, -0.6985643657621251, -0.7226398912325309],
 [0.703197641711572, 0.7108684692681851, -0.047499033117225066, -0.2641680916842465, 1.0075633394755608, ..., -0.30262339014388023, 1.713543511324363, -0.53123846703035, -0.76996136265436, -0.8326773069317267],
 [0.29706134312170773, -0.8316862031461646, -0.792203964451744, 0.4829142689233595, 0.761495763161988, ..., -0.7884829676964927, -0.35571388777125185, 0.6348608461917202, -0.7249576636219865, 0.03217110634386427],
 ...,
 [0.7496279748582632, -0.8848444859990756, -0.3313024738558146, 0.32210883431077236, -0.6787804611258416, ..., 0.18665908628110645, 0.29370083170777866, -1.0289199678083103, 0.4536740314422884, 1.3933520540011248],
 [-2.1539069177217542, -0.8446658031265784, -0.7949777382256064, 0.2775759393170988, -0.7182781104567413, ..., 0.5829300898134093, 0.7211683131685585, 0.9838051190953069, 0.20920540502942267, -0.0687505398111316],
 [0.20955035272662254, -0.41258818494081806, -0.6039236183167587, 0.611477459537683, 1.37006811011153, ..., -0.9715243463208103, 1.141388112230147, -1.1859650479814574, -0.10921636661392785, -0.6140208477916891],
 [-0.008517736858594272, -0.453123890117265, -1.2075193769958648, 1.0298801574935292, -0.8956491563335978, ..., 1.0739484224692306, 0.920014369011025, -1.0925794415770367, -0.33250682851604635, -0.5292658079953787],
 [-1.8521071246711935, 2.3350328357997863, 1.7997420101117416, -0.21469938661833246, 1.689171179695448, ..., -0.9085410224024141, -0.22243580941623142, 1.1867102715308286, 1.1285757587486995, -0.6589646412285933]], shape=[50, 100], strides=[100, 1], layout=Cc (0x5), const ndim=2, [[-0.22657616685438736, -0.5083411781102833, 0.40273920892248155, -2.0240564365162763, -0.8740233692178279, ..., -0.22407423921094055, 0.4178693434519481, 1.1068026835055658, -0.003545361998817787, -0.48382602887722453],
 [1.2003133185285135, 0.3828656221162171, -1.1999686627765707, 0.12825446477457542, -0.3954442258032339, ..., 1.0098484729543427, -1.5137798748597404, -1.5821319246940422, 0.2056210208997618, -1.0749408560000588],
 [-1.6329112289578598, -0.8270037457533302, 2.2412189235616995, 0.8281267298009669, -0.21585171105859266, ..., 0.4066003841369582, -0.015443812423013417, 2.0255608017782283, -0.33788228504386036, 0.31345288672403304],
 [1.3699728872701435, -0.06920511002307189, 1.3844219039761616, 0.9867875325871595, -0.032349681012745574, ..., 0.4405450493457575, 0.17116412572376674, 0.0005400221503840804, -0.2846903642330648, 0.9584253169930944],
 [-1.623551192864371, 0.015709272892661677, -0.3205479846989828, 1.750283576542272, -0.5584678621978273, ..., 1.6125295510256787, -0.6074280946623877, -0.5667869712009507, 1.2705559700934668, 0.3475026028986708],
 [-0.28886589233234045, -1.159070421223058, 0.3260971678542154, -0.6476316442677109, -0.8388586203035957, ..., 0.3544766218734568, 0.8999580902503288, -0.24999296412548533, 0.4216708485294868, -1.7883767946868223],
 [-0.8489188067087465, 0.19647842118772832, -0.759356828369279, -0.03624358407703624, 0.668052857712912, ..., 0.31842131744015906, -1.6250330121267698, 2.1113367412141075, -1.326305937001807, 0.852312631136081],
 [1.1911775863617904, 0.49036598990467317, -0.18893481224024142, 1.3270725011985545, -0.7424849521020865, ..., -0.8440278781921356, -0.6597972985713831, 1.7884406651044065, 0.42063356105627786, 0.349764853391376],
 [-0.9505207625125135, -0.15143907405094778, -0.37503367537811205, -0.22349701458725688, 1.1492894652180135, ..., 0.5888437054326381, -0.42961366686896335, 1.897080576314349, 1.1444409058457696, 1.0288648462073133],
 [1.234393525528883, -0.49872383672125, 0.016340346554109823, -0.19014717979067036, 1.8078525767347966, ..., -1.1431912642120052, -1.3037359375247422, -0.04097782868633005, -0.508108408119829, -0.7201471820371761]], shape=[10, 50], strides=[1, 10], layout=Ff (0xa), const ndim=2]
Bias
[[[-0.8735385599364199],
 [-0.33896810787394405],
 [1.7073558999489928],
 [0.4019142882351702],
 [-1.0769383220250461],
 [-0.05935123000279607],
 [0.08197443569645249],
 [1.2415347999750053],
 [-1.274865736334321],
 [0.2668811463640316],
 [0.438139087257092],
 [-0.12125315292876514],
 [-0.31630152668291056],
 [1.0586288427840873],
 [-1.6834299578255183],
 [-0.7162347980881275],
 [-0.6001310265666887],
 [0.8565952582117651],
 [-0.15724294853302292],
 [-1.0278329979341325],
 [0.0020043264103938203],
 [1.6273595865459984],
 [0.2186682134605809],
 [-0.646681627967307],
 [0.35994959229740764],
 [1.0437314432982627],
 [0.5806694744598627],
 [2.0104275061687287],
 [-0.39004362403835396],
 [0.3105962978342287],
 [1.045703023408772],
 [-0.8599477633764525],
 [0.8986136419155285],
 [0.7829315664524934],
 [2.2160355067687814],
 [-1.5034118668224052],
 [0.6970142033154615],
 [0.14831818327316498],
 [-0.6763353685907761],
 [0.5103666003077854],
 [-0.597477145386207],
 [0.763871047696125],
 [0.5071949810867573],
 [-0.1874120021865011],
 [-0.8794783918082266],
 [0.4194135983804204],
 [0.43324681438772417],
 [-2.696311934948527],
 [0.18151317149498997],
 [1.5478479499650921],
 [0.30914808229255736],
 [-1.6875192242861934],
 [-0.5941127228235162],
 [0.5367860623064848],
 [-0.7104206167521625],
 [0.3064956355586621],
 [-1.046581419294774],
 [0.26645107231733556],
 [-0.9257839598563578],
 [-1.851060829385237],
 [0.25462602480093305],
 [-1.5416938572399221],
 [-0.08914057757481689],
 [-1.046834578863786],
 [0.3805129586439686],
 [-0.4954628600091916],
 [0.441481959141377],
 [-2.671687431524115],
 [0.07905702609945803],
 [-0.510601814457766],
 [0.9788844070606598],
 [-1.0039325231155907],
 [-0.7672477685079702],
 [1.0263465388004873],
 [0.7942439257330752],
 [-2.674153584061649],
 [0.15898899206222525],
 [0.47207253443854696],
 [0.5400236433364961],
 [0.5128793724484095],
 [1.0315388755030834],
 [0.22066215797146885],
 [1.3353614666577167],
 [2.387036352551903],
 [1.4795722292921432],
 [-0.34932198847294677],
 [1.43213996695921],
 [-0.33680957687755164],
 [-1.1309164022786167],
 [0.3765943879705295],
 [-1.1963881610190479],
 [0.7955360367642444],
 [-0.7286474739524641],
 [-0.5658675165154109],
 [-0.5476285685317269],
 [0.5050270933509309],
 [0.750935895267047],
 [1.6820111160250681],
 [0.18400915218564745],
 [0.06453443307235066]], shape=[100, 1], strides=[1, 100], layout=CFcf (0xf), const ndim=2, [[-1.1160700464343307],
 [-0.01410111258035609],
 [1.85611044440742],
 [-0.6384970811681643],
 [-0.8027344064791319],
 [-0.8532455293004229],
 [-0.43909918027645817],
 [-0.8568977200048321],
 [-0.9722771277830153],
 [-0.6592241531119633],
 [0.8062619274848827],
 [-0.3054390609243525],
 [1.0722101010773222],
 [0.2862599389610537],
 [-1.810996496176942],
 [-0.4875237992969545],
 [0.36300466708828255],
 [1.822776820731718],
 [-1.47258003262347],
 [-0.2960498832454874],
 [0.7642344819868515],
 [-1.0282059469394722],
 [-0.09706182106311803],
 [0.2639027318368683],
 [3.9068099147488784],
 [1.201088343128162],
 [-0.2692667069053548],
 [0.335531731536679],
 [0.01992409720646377],
 [1.066377402622923],
 [1.6014006239611336],
 [0.5211952983051539],
 [-0.5806036740932837],
 [-1.2396608280615353],
 [0.09085508372082422],
 [0.2231488067524656],
 [0.3345642703091563],
 [-2.0384039486195076],
 [-1.5368719488029785],
 [-0.24601943023112458],
 [-0.13082996745302225],
 [-1.0965446460788746],
 [-1.069878516085725],
 [0.7836843481314304],
 [0.6636716079715145],
 [-1.1927164348767856],
 [0.19818521874179992],
 [-0.49416912810873836],
 [-1.7604702000927641],
 [-0.4137425394650537]], shape=[50, 1], strides=[1, 1], layout=CFcf (0xf), const ndim=2, [[-0.13640353542193817],
 [0.008923768040567789],
 [0.44235743923811893],
 [0.5671253043405904],
 [-1.457070706658403],
 [-1.9501959309555679],
 [-0.5253759172014882],
 [-0.047257401939257475],
 [-1.267237593910542],
 [0.19918865593153706]], shape=[10, 1], strides=[1, 1], layout=CFcf (0xf), const ndim=2]